{
    "input_nodes": 3,
    "hidden_nodes": 8,
    "output_nodes": 2,
    "weights_ih": {
        "rows": 8,
        "cols": 3,
        "data": [
            [
                0.8656124238007004,
                0.32480783118830603,
                -0.9364334796628135
            ],
            [
                0.25888681465170027,
                -0.8702204882972744,
                0.5300708882520735
            ],
            [
                0.265308486938137,
                0.6536277993832065,
                0.9728309054415192
            ],
            [
                -0.09977499015372748,
                -0.5247045276588693,
                -0.6862963663452475
            ],
            [
                -0.05936612506160088,
                0.4229273557560287,
                -0.4184104164990705
            ],
            [
                -0.07592903628949577,
                -0.496664885099948,
                -0.09865110604095584
            ],
            [
                -0.8525998276447,
                -0.8956257283081355,
                -0.6708223320299398
            ],
            [
                -0.2875472341550851,
                0.772352117868865,
                0.0535424344413884
            ]
        ]
    },
    "weights_ho": {
        "rows": 2,
        "cols": 8,
        "data": [
            [
                -0.8591500073515688,
                0.7046690575938332,
                -0.529696952525216,
                0.6455128683015081,
                0.40926822548624786,
                0.013419843705411605,
                -0.9804076633035685,
                -0.7879808916821243
            ],
            [
                0.4591824146009569,
                0.22985702432437183,
                0.5110625985831376,
                -0.925002256786184,
                0.19017560839781877,
                -0.7784663312292279,
                -0.02155423798313505,
                -0.03374717125327553
            ]
        ]
    },
    "bias_h": {
        "rows": 8,
        "cols": 1,
        "data": [
            [
                0.09272111701221109
            ],
            [
                0.4380746561902473
            ],
            [
                -0.8797354133264403
            ],
            [
                0.4636626357063176
            ],
            [
                0.5244666255183961
            ],
            [
                -0.6740593148837726
            ],
            [
                0.42880829840785406
            ],
            [
                0.5353821179467837
            ]
        ]
    },
    "bias_o": {
        "rows": 2,
        "cols": 1,
        "data": [
            [
                -0.28298517164041437
            ],
            [
                -0.909087757685278
            ]
        ]
    },
    "learning_rate": 0.1,
    "activation_function": {}
}